-3.6188545,-2.5532596,-3.7921183,-2.389042,-1.278665,1.6111184,-0.6137984,-4.156737,-2.9174933,-1.9565346,-2.0110795,-4.0645795,-2.6953056,-4.2566214,-4.049918,-7.6947813,-3.1483288,-0.612666,-5.6488657,-3.2118447,-3.4397182,-4.5267406,-2.5464582,-1.5125232,0.7362516,-3.9676716,-1.5735468,-1.9281387,-0.8750767,-1.8261304,-1.5488925,-1.9083767,-0.6685895,2.069904,-3.7487204,-2.18485,-5.1261396,-1.4581177,-5.4501567,-0.38211772,-0.9420563,-1.5292137,0.18284768,1.9090865,-0.20774639,-3.5923069,-3.519586,-1.5795151,0.728289,-2.5421684,-7.960389,-6.7130027,3.9730248,-1.422611,-0.43003696,-3.1353285,-6.5705776,-2.1942196,-5.361476,-5.1817017,-3.1566048,-4.0052385,-3.8871555,-3.4179158,-1.2881346,-4.60773,-2.7637138,-0.29161224,-4.112568,-0.11605239,-0.23305336,-6.3870897,-2.1327171,-4.3475327,-2.5814648,-6.0718,-1.0825932,-6.1335325,-4.993759,-0.36483455,-3.167281,-0.46556306,-3.4171515,-3.7065284,-0.5497911,-3.7233777,-2.1146004,-3.4811838,-1.4939678,-3.5509505,-6.1022115,-7.9074993,-4.0284185,-6.173429,-2.7335138,-2.589448,-2.4036102,0.39241987,0.08993912,-1.3152494,-0.5630883,-3.1478968,-0.52399033,0.07236098,-2.6769712,-5.755536,-4.3960605,-4.9530973,-4.8348527,-4.328068,-3.3415194,-0.8833381,0.8309188,-0.8585162,-0.66074353,-4.118934,-3.7905135,-4.1205144,-0.3047009,-3.9952383,-3.6885414,-1.6539464,-3.6394954,0.82307917,-1.1160793,-1.2930257,-5.9104943,-1.0285943,-6.6860123,-1.8178376,-5.5449824,-7.006417,-7.4559927,-5.1296034,-6.7550755,-3.4923406,-2.0110874,-4.3339143,-3.4360301,-5.128279,-2.8310463,-4.1590323,-3.228856,-3.2936192,0.2277677,-3.6152961,0.28586614,-0.10989362,-2.6336515,-0.1243546,-2.2554421,-3.5526018,-0.6801536,-1.9330792,-3.0718722,-4.364152,-2.2979925,-4.870909,-2.808442,0.7784084,-2.6294816,1.199166,-2.4652567,-2.2832017,0.9835524,0.50007945,1.7535723,1.120151,0.3617568,0.54042196,0.4188977,-4.066962,1.2582271,1.9221767,-0.64846367,-0.94100237,-0.85797465,3.103134,-0.25693583,2.6807861,-4.09127,-2.1600194,4.315294,-2.6000726,4.234072,-1.5357711,-3.3687835,-4.946535,-4.068436,0.95477766,-0.36149138,1.7943054,0.8782145,-5.7316513,-2.6632276,-1.958271,0.5745072,-0.20977227,0.7593445,1.1965067,-1.7552803,-1.8780732,-4.44832,-2.3500686,-4.074834,-1.8104744,0.17541364,2.0976238,-1.9279563,-0.5600202,-1.4295788,1.3818786,-0.29342586,-1.5146462,-1.347524,-0.26374307,-3.7072227,-1.4445971,-1.9368726,-7.32318,-1.0181419,-0.552216,0.21376455,-1.693233,-1.0833759,0.34735963,-1.0021852,-1.532631,-0.79372686,-2.0547943,0.46892306,-4.0267744,0.6087604,-0.79554874,-0.103298426,-1.8387473,0.0054521263,1.2043073,-1.0960028,-2.2501287,-3.0368454,-0.8353615,-1.8876201,-1.7254933,-3.012137,-4.758292,-3.4160078,0.5217339,-2.2915432,0.5135057,-3.2291567,-0.09796259,-0.13822311,-2.58045,-1.2996136,-1.2527161,-5.114865,-1.9035726,-1.7982101,-2.3372653,-4.4030213,-5.555771,-3.3139338,0.39601994,-4.328534,-4.4325943,-0.7021862,-0.6248819,0.7968414,1.0816125,-1.8010857,0.1304529,-0.15668848,-1.1299828,-1.715848,-3.6951232,-3.6947544,-2.953926,-2.3358767,-2.3234508,1.0720074,-1.5301439,-1.4415776,-3.6948302,0.1331073,-1.8607326,0.67677855,-5.4324484,-4.253691,-1.6354138,-4.639373,-4.476322,-3.5236056,-4.29649,-2.9512932,-3.2928705,-2.0664673,-0.4894417,-4.137751,-1.9279785,-3.5480423,-1.0896634,-2.9420156,0.898823,0.8772735,-3.2670035,-2.8882382,2.746049,0.94718933,-4.811174,-6.245185,-2.2643623,-3.0096467,-1.9331249,-3.6182756,-2.0557742,-5.4933243,-6.6492834,-5.2557178,-3.4898272,-5.8082356,-4.04432,-7.1699467,-4.5152044,-5.40498,-4.6536665,-6.2359133,-6.606947,-2.7710838,-1.2084746,-1.4568857,-3.3945222,-3.9028058,-3.1616254,-3.066504,-3.6129565,0.12683588,-4.303313,-4.1624084,-6.0172496,-0.15665102,-4.1161323,-2.7490754,-3.7881765,-4.7965994,-6.797079,-1.2542017,-7.613325,-3.9939084,-3.5135021,-3.1162777,-2.6652741,-3.2492027,-4.008886,-0.71483874,-2.2581449,0.5990981,0.21631064,-1.3919027,-1.0440941,0.37447575,-3.6553721,-0.28165758,-2.1187353,-2.4207075,-4.175889,-2.6932917,-2.7490816,-2.837705,-3.4726522,-3.1382594,-3.0658672,-3.778389,-2.6454334,-1.9633749,-2.7923186,-2.09922,-1.9859353,-5.466196,-0.62080693,-3.7630517,-2.7110236,-4.246703,-2.9109867,-3.1884122,-0.67328143,0.8125884,-1.3863467,-4.9292493,-2.296389,-2.1206288,-1.2093568,-2.0248709,0.4358102,-3.8278403,-2.314837,2.1320279,-5.2331476,-3.8112252,-0.6701256,-0.38006818,0.40187398,0.7059026,4.7989197,-3.250342,0.228212,-0.39633262,-2.9922822,0.4796711,0.9424062,6.843562,-3.4532092,-1.7562119,1.382726,14.878622,0.09819162,-0.28792727,0.47356808,-4.19833,6.5132604,2.8955464,2.2829118,1.6210871,4.234461,5.0510077,1.4679594,-1.4554677,2.5029683,1.6693925,1.3021215,2.0933506,-5.0213165,-1.4664469,6.6341014,2.2452266,-0.563081,0.028964281,1.3297849,-4.2664967,3.436144,-0.85632026,3.8922691,0.5374393,0.05341798,0.58255553,0.30694258,0.40798557,4.925768,8.170458,-0.89777946,-3.1703427,-1.9814415,3.6356514,-2.3091881,-0.53984785,-3.1366096,-1.2222407,5.1587024,5.372406,-3.0760584,2.3988676,-4.923342,5.95947,3.423542,-0.42338473,8.410607,4.112763,-2.3490803,-3.7746058,1.6877075,0.64226514,-0.108918846,5.8790393,-1.2587278,14.032342,-0.45242697,3.7584512,-1.1326517,11.635822,1.1263231,3.9970202,1.7106711,7.2520638,9.9034815,0.5935818,-3.2162752,7.2427015,3.4394112,3.6501775,7.6949806,0.28186274,5.199149,6.0363564,0.87702,-1.6088161,4.6772738,-0.7940861,0.41457567,-1.8002608,0.6286228,11.806763,-1.7472314,-2.268318,3.528404,6.034051,7.13377,4.5703464,1.3068879,7.4851556,3.8135638,-1.3779905,-3.9517689,1.3331125,14.059421,6.8340964,0.64826,2.602585,-1.512084,0.49912912,2.676044,-0.117987394,-3.4416766,-0.70397526,4.864056,3.8298264,5.7939897,0.42761528,3.3852937,3.5810564,9.745848,1.5376643,5.1309156,5.5295157,0.36476412,-0.029635519,0.029444635,8.133114,-1.7815382,-2.8948658,-2.9718626,0.79536724,-4.536987,1.7974136,2.245286,8.166135,-2.4820485,5.614607,3.0807967,-5.442889,0.8832599,1.2621639,7.932438,6.508599,-0.77641606,0.6100881,-7.203917,-1.6555809,-2.761158,-0.42446226,7.1602387,-1.1295917,1.5526407,3.6859958,-2.1689892,6.5006623,-3.094915,0.4969557,5.8705597,7.650598,-2.3715253,0.5401547,7.445104,5.3436327,2.857597,0.70927,1.2431014,1.0634077,-5.0474377,2.5996926,-3.4398243,1.3703084,-7.0690284,0.9123507,-0.64276206,3.88562,4.807765,4.3611383,6.0219097,13.234527,2.822927,13.986359,5.4073143,-0.39329785,8.33986,4.891282,-1.2712821,2.171981,12.622158,13.504909,2.4386053,0.51727486,9.7480545,-1.9949713,-2.046162,0.6501191,2.4271,3.6445234,8.213607,-4.602636,-1.3297827,1.4744056,2.055414,3.7067761,-1.5809633,9.55568,-3.7061934,8.171894,-0.32660842,3.269461,4.5980864,-1.6208518,1.886768,2.9934561,1.2444273,6.558079,-2.3074505,-3.5358212,7.060911,1.2736993,-3.7411046,7.8390293,-1.5221574,3.8425403,7.6402564,10.882078,2.1756601,3.9920096,3.7446072,1.9498658,2.2233782,2.4250443,-2.040678,7.9118953,-0.2628083,3.662758,1.6529819,-5.1912675,-1.0544938,5.275688,4.229219,-0.36055863,11.244979,1.7890309,3.5382023,2.675872,1.5014478,2.2385304,0.47358042,2.5991993,-0.8665468,0.50237346,-1.1504924,2.6609907,3.4222295,-0.6545637,2.7816463,4.6983905,2.705868,3.0556984,-3.8542309,-6.438479,2.5085657,1.1654216,-4.3319106,4.8727016,6.9829173,-0.6087477,8.553979,5.5354276,8.083969,2.4094205,5.359707,1.6483595,-3.7017255,7.6308694,6.555098,2.0360067,7.298162,-1.3872011,4.2642055,-4.4532614,-3.4583457,7.535988,4.293646,-1.0346687,-4.6300673,6.717682,9.202965,-1.9334958,-3.8221805,5.245938,6.4036994,-2.5893996,-0.8168503,3.0199437,2.155045,0.12136364,-1.0822163,3.7664006,1.2782836,3.3492382,10.224296,3.4974527,1.5570935,4.279885,5.008166,2.7158298,-2.4477754,4.0237794,-0.9517934,2.723671,4.403126,-2.2623456,2.1926754,-0.22574842,-6.3141937,3.2296789,6.751776,-1.0638962,0.33881968,2.121403,5.172217,5.7348447,7.328934,4.1460776,-1.5850533,-2.8892136,2.9574864,2.3044767,0.24195355,6.576392,14.701113,-2.2551198,7.296584,-0.56072986,6.4386287,5.3179455,3.1715217,1.3157059,2.5058856,0.3073074,-0.8846656,0.5537532,-0.4105655,3.6203475,8.983092,-2.0578287,2.8477144,1.1567563,11.96574,6.5753264,2.9160419,3.6913292,0.49839962,23.967419,14.812683,3.3656328,5.610786,5.681153,-1.1814307,4.7719955,-4.229492,4.4097466,5.066466,4.036783,0.87070817,-2.1420908,4.910098,6.834296,2.7861228,-1.792825,-4.461503,-3.8452308,3.2170198,7.2286196,8.33347,4.3681717,10.370292,4.4771132,-1.9373678,-0.96164286,-2.391512,0.021782815,11.164564,1.2429173,2.5901265,2.087486,0.51246375,-1.2230325,3.6345932,-0.17802042,-2.5415301,4.6957593,-0.5067279,2.6230779,6.426721,-2.3988051,0.90479803,0.4792465,-0.8553729,1.2195796,6.177944,6.0075164,-0.86187977,8.67312,-4.5358315,-2.9025762,1.5608823,-0.2699541,7.929608,-3.4366214,0.030530691,-3.4391887,-1.2306669,8.015002,0.5677329,-0.39372563,4.7209754,4.5178585,5.182437,-6.842285,3.0053744,3.4020333,-2.9470718,0.067117214,1.5048258,0.51398623,6.28229,3.871766,3.8212113,-0.866441,3.046769,-0.5221573,2.6178489,0.2917453,9.824936,5.2010946,1.508222,1.404567,8.642874,1.1750872,-0.65186876,1.8865445,1.6417251,-2.4196033,1.5355207,3.818792,4.710215,0.2690251,0.9000381,5.552132,2.7299244,5.09448,0.940429,-0.35756752,2.7937324,2.0605211,2.7942815,3.0347788,0.96952623,0.8945937,6.1057487,-1.1612245,8.202581,1.3870449,-5.2044687,3.822961,0.040278792,3.4074676,5.9935503,-0.019669533,-1.1360481,1.2911086,7.5394454,2.4079092,-1.5103745,0.0020580292,0.32118165,-4.9370637,0.49516624,7.45662,-4.5804887,6.990162,3.5312219,3.9560027,0.05651751,3.569132,5.181308,3.7278183,3.8389125,3.8894734,-3.6795669,3.2249095,10.206125,-1.613212,-2.4164515,0.8690574,2.9272828,7.2003164,-1.5723683,4.8773518,1.911191,1.8474883,-2.579111,-3.92761,-4.4019127,-7.111833,2.7618766,1.0021003,-0.19228706,-0.83734536,2.4474983,2.168872,-3.031981,5.0519104,-2.5753322,4.5588813,0.45208895,-2.3691375,-1.5305417,1.841398,0.076759785,0.2075659,1.1032288,-4.5493608,-2.5942326,1.3461422,0.82427686,2.7054436,-0.85283774,2.0127687,-0.7713809,-2.1671457,-0.11951943,0.43289673,-0.98002005,-0.728893,-2.8000984,-3.9472933,-1.1835821,-3.2661927,-3.1061594,-0.5014607,-2.242648,-0.25977942,3.9240408,-0.8640273,-2.0589094,-4.9212165,-1.1475389,1.8495386,5.196105,-0.33537745,-1.3378065,-2.7015986,-1.634288,-2.1130137,3.8437262,4.9235334,6.74452,3.3913941,0.41828647,-0.90682817,-2.6614254,-3.403986,-3.2925534,-4.436844,-2.4788523,-3.0956109,-1.4425437,-3.4963274,-5.8292933,-0.071279615,-2.14823,0.46518162,-2.4517136,-5.182183,-7.97087,-0.30460596,-0.08089277,-3.4685338,-6.5137386,-1.9079077,-7.1780853,-2.5911489,-2.363186,-0.20620018,1.6514448,-3.7348242,-0.22703141,5.2999086