-3.6071353,-2.7661638,-6.209676,-3.338728,-1.4659452,-1.0659254,-0.17150596,-4.0974436,-1.9877017,-2.0511076,-1.4542797,-4.015121,-2.887917,-4.641156,-4.141264,-5.762889,-2.416063,-0.59766656,-4.139922,-2.3725038,-1.7062925,-3.4610102,-0.36342147,-0.2789451,2.5419502,-1.8628492,-3.0705597,-2.983129,-1.5547601,-3.3761868,-3.8597987,-2.8109934,-2.3243773,-0.813527,-4.4026875,-2.2466996,-5.548462,-3.3116593,-7.97913,-1.672093,-1.3799981,-1.2396095,-0.57563365,-0.9150297,0.05067587,-3.0475905,-3.907493,-1.9009393,1.5012246,-2.861958,-6.846098,-6.3020215,1.7317002,-1.6216416,-1.2504084,-3.6882577,-5.7292933,-3.3092012,-6.5038533,-7.608141,-3.1502132,-3.9314785,-3.26546,-3.2158206,-3.0054824,-5.2750196,-2.9014401,-2.1827857,-4.9475756,-1.6748561,1.9587417,-4.5671253,-1.9579768,-2.6010044,-1.9366639,-4.71063,-0.2795533,-4.9474792,-4.202134,1.6050086,-3.1157954,-1.3972226,-7.051454,-2.4616244,-2.5848093,-3.4574165,-0.74982977,-2.6528556,-1.5420592,-2.6795852,-4.673317,-6.473054,-2.487669,-5.037686,-2.0879707,-0.9410993,-1.3151059,0.89240426,0.20494294,-1.8355693,-1.4117267,-3.959525,1.9998087,-1.6959342,-1.4949696,-5.1555853,-3.94174,-5.410742,-5.70949,-4.7743583,-3.7943444,-1.5939443,-0.6365969,-0.91051686,-1.1510768,-3.938754,-4.651353,-3.863616,-0.25271463,-4.353506,-3.4809163,-3.2740998,-3.6962295,0.83613783,0.7963239,-0.8175614,-4.8625975,-1.3806787,-4.467082,-0.42140025,-3.9614697,-5.7965655,-7.0937157,-6.1684184,-7.263557,-4.0709763,-1.1137972,-3.7841816,-4.601198,-4.533247,-3.02118,-3.3524132,-1.5660651,-2.0466244,0.7603636,-4.1132193,-0.3207072,-0.9626607,-1.979058,-0.49302763,-2.0699992,-3.5442107,-1.6029826,-0.8786882,-3.0137146,-2.7704108,-2.059517,-5.634608,-1.6618199,0.5093806,-2.519884,1.6474576,-1.5371938,-3.6673784,1.136913,0.0252406,1.0230713,-1.4220216,-1.2139161,0.672119,1.2345192,-2.4255934,-0.28868365,1.3038746,-0.66973513,-0.92712843,-0.47429058,1.9275839,-0.034718275,0.5700807,-3.5253942,-2.8185184,2.8188815,-1.8023925,2.8840928,-1.5485716,-2.703955,-4.2304587,-3.689365,0.43328464,-0.11916709,1.2599162,1.21137,-4.8974934,-3.6002345,-3.1380293,0.72005635,-0.0028411597,1.8373581,1.3367712,-0.82268625,-1.5098155,-4.288072,-2.017352,-3.2901633,-1.4709053,1.5162551,4.2750125,-1.0602978,0.4907213,-1.2463975,1.4575782,-0.048516333,-2.678609,-2.0664942,-0.08062002,-3.9105978,-1.9026611,-1.9202708,-6.4130425,-1.4709558,-0.52612484,0.6798792,-0.47789937,-1.0442452,2.151092,0.49442998,0.36347654,-0.96619105,-1.6878252,0.24273899,-2.9019928,2.0910802,1.0659797,-0.5035105,-2.0826995,1.4393821,-0.45877665,-2.4928584,-1.912778,-2.1820061,-0.994557,-2.8395364,-3.493979,-3.1355858,-3.040456,-2.9531887,0.6060419,-0.60092604,-0.09034729,-1.7710828,-1.0597674,-2.1627293,-1.4764166,-2.187521,-0.9773795,-2.7941675,0.19603616,-0.75425595,-1.2874433,-2.633025,-4.6346345,-1.5549583,0.012651622,-3.600461,-4.103902,-1.9704403,-1.5572069,0.6512625,-0.17505181,-2.376307,-0.0048128366,0.16075978,-2.0851622,-1.4813006,-4.713644,-3.398639,-3.177419,-3.4895618,-4.0539417,-0.018426538,-2.4168222,-0.25040781,-4.3074713,-0.011486828,-1.9866343,0.07335858,-4.694856,-4.081303,-3.1614313,-5.865895,-3.9323153,-4.4475555,-4.1670594,-4.6287413,-3.9724808,-1.9432597,-1.612626,-2.8633153,-4.5081873,-5.082893,0.25357282,-4.2914906,3.3047485,2.1087174,-1.9127884,-0.4054821,2.4289634,0.43719912,-1.1619494,-4.675985,-2.0990205,-1.4574051,-1.151654,-1.804395,-1.41531,-4.207447,-4.4234343,-3.5659223,-2.9504738,-4.3632226,-3.4360409,-4.7241716,-3.4582605,-4.490488,-4.560751,-5.5904875,-5.4561696,-3.115602,-0.22746158,-2.196316,-5.373013,-6.291875,-2.6320114,-3.5810542,-2.7414591,-1.8061609,-5.683556,-6.111143,-6.9708476,0.49531913,-3.7316887,-2.6112404,-3.912115,-4.6209216,-4.967819,0.32989168,-4.1064954,-2.037243,-1.82339,-3.9017015,-1.0623856,-2.4947462,-2.5600924,-0.96962935,-1.7772202,-0.24004352,-1.003497,-1.9273639,-2.082816,-0.8954567,-4.443454,0.77947474,-3.8099098,-1.3387084,-3.1579351,-0.39598864,-2.1978843,-1.1203262,-1.9469061,0.01577413,-0.41967857,-2.9779665,-3.8067253,-1.4370322,-2.2768447,0.19296658,-2.801549,-3.4731066,-0.7882965,-2.3033977,-2.3427742,-2.8168797,-1.5895581,-3.0021167,-0.4936545,2.109424,1.634277,-5.471053,-1.9115738,-1.1747091,-2.9756413,-1.8622855,1.2328342,-3.7514138,-2.4822521,0.1951614,-7.0402737,-5.575152,-1.8084837,2.80024,2.8939364,0.9283056,4.931476,-2.393068,-0.5426285,0.05277717,-3.903886,-1.8897091,0.47938395,6.6458693,-4.5640893,-0.58076364,2.0917118,13.285549,3.1655674,-0.5086837,2.0320487,-3.7327566,6.1644516,2.5835557,0.20774642,1.700846,2.668964,4.896678,1.6805551,-0.5456615,1.9168766,1.5881175,1.2721012,2.4560294,-2.9333193,-0.099159524,5.3489404,3.5115733,1.7368416,-0.9448448,0.18350334,-2.8989367,1.5818276,1.3737386,3.8422203,-0.25799653,2.1643703,1.0524887,-0.40291524,0.37419224,6.2114887,11.091337,1.039678,-1.0505817,0.20743573,4.527558,0.9709767,0.42212453,-2.8614287,-0.8485198,6.596635,5.9218864,0.16202635,3.080262,-4.204056,5.877718,4.869916,-0.22375077,9.627591,6.3154745,-1.9574842,-4.5932107,-1.0399985,2.38988,-0.6714661,8.157686,-1.4084507,10.627939,1.5380267,2.85258,-2.9829044,9.763851,2.9492486,1.8874452,1.5483146,5.9803343,9.925868,-0.66413385,-5.4971495,7.904681,1.1539503,4.142054,5.7152796,-1.0155402,4.968911,4.1154757,1.5400106,-1.5163304,4.9612346,-0.6719154,0.70073813,-0.9166366,0.5057446,8.261636,-1.8705989,0.4102644,4.794281,2.6736505,5.3624487,0.4927206,0.6116475,7.7607327,3.9636395,-1.989219,-2.9411755,-1.3816981,9.887308,6.6428857,3.5088782,1.9708018,0.099196196,0.59942037,4.305651,0.08959007,-2.1607964,-0.028622717,5.720953,3.2791896,4.9303446,-1.2236155,4.613348,5.3184004,6.3026085,3.1551077,6.281599,6.4815006,0.2602435,2.0880506,-1.5484581,5.2725387,-3.98981,-2.2529826,-3.6173062,2.7203977,-4.9422517,1.4044342,1.4523284,5.3560934,-4.685401,5.620968,1.5882008,-3.5117083,2.7170682,1.5472207,5.2843475,6.4042125,1.2496338,1.5074354,-5.968904,-4.5474296,-1.552779,-1.0056872,6.677879,-1.677608,0.42964786,2.2520041,-3.890736,6.1878905,-2.1289427,1.0272155,4.7542114,3.0647302,0.39107847,-1.6581403,9.172554,4.289603,0.88029486,-1.5115874,0.6616618,0.1299558,-5.71785,1.7724562,-1.77487,1.4088178,-7.9361176,-0.44130415,-2.1393485,3.6434364,5.111658,5.1453953,6.063161,9.460427,3.409266,13.889659,5.394294,0.3605926,5.628246,6.285255,-1.7031441,2.4221094,8.559119,15.8919525,4.087903,-0.031576157,9.61157,-1.5684048,-1.7260594,1.4084635,0.32617992,4.2119117,5.59881,-6.569054,1.333233,-1.1051266,2.6566732,1.5140804,-0.0264197,9.368611,-0.41626123,12.017349,2.4188502,3.319061,1.16481,-0.22622731,3.7965393,3.1216745,3.433461,3.386291,-1.0155873,-4.479948,6.013181,1.7210314,-5.1468287,8.193369,3.3702664,3.9176097,9.311917,10.613408,2.5409117,4.9054694,4.395949,5.052157,3.713341,2.5715473,-2.2154267,5.5192924,-1.1595675,5.5353823,0.89577675,-4.5611734,-2.98494,3.2260191,1.7008961,0.6161302,13.005754,1.0364666,3.865769,0.79572904,1.209809,3.194493,-0.4781338,3.1000419,1.4848335,-1.8537858,0.096245766,3.9397454,6.6006417,-1.6819787,3.9451585,4.38502,1.3037437,5.0605955,-4.2461243,-5.767901,2.2786875,1.8997821,-4.8793564,5.346619,3.9791892,-1.3387445,9.822066,3.7515304,9.20077,2.7686272,4.1506066,2.4319687,-3.5517588,5.31014,7.102814,1.8931253,5.9108534,-1.2556174,4.044623,-2.1701484,-1.598957,7.9649343,4.544363,-1.9751832,-4.355114,7.7986603,6.560736,-0.8477879,-5.28376,6.732115,6.362034,-2.5016398,-0.9889182,3.7750373,3.1380491,0.68095756,-0.7590916,3.8887532,1.0106641,5.430334,7.017759,3.3162546,0.12536669,2.636887,3.477704,3.2096133,-2.2484508,3.7421904,-0.6700955,2.2824993,2.7467623,0.15100983,1.6992078,-1.2543565,-4.6582766,0.80989546,2.1447842,-3.746015,1.6776564,2.320019,3.103221,3.6909003,7.665713,4.0760326,-3.5073624,-0.653359,3.2319255,1.7128148,1.2728832,6.09752,13.028361,-1.2700989,6.7134814,0.96664023,6.435042,5.464455,3.327188,4.1618505,4.715503,-0.13937855,0.14207041,-0.5555765,3.370102,4.06844,10.298831,-2.745678,2.299195,1.5289248,9.046239,8.269453,1.6417515,4.3357697,-0.46904695,23.084772,14.00053,1.7396101,3.5098517,5.741958,0.36420575,4.1863165,-0.1387538,4.4268274,3.8599963,1.8220061,3.986462,-1.6333617,4.885706,7.5328846,2.495614,-3.3680058,-4.4095054,-1.5598936,4.5355678,5.227413,6.52395,3.4499216,6.364649,1.7082453,-1.2218632,0.67886686,0.3379835,-0.6789647,9.297664,3.3001707,0.98095137,0.5399227,2.887274,1.8352442,3.6081424,0.67005885,-2.4827175,4.356729,0.51679945,1.5199939,4.8771195,-1.2498214,3.2405858,0.13978249,0.69820774,-1.8861771,5.0715466,8.37154,1.3767161,6.121889,-3.7889194,-2.2774029,0.5694107,-2.01867,11.026836,-2.7230878,2.697361,-3.765892,-3.800096,6.0540557,3.1207304,-1.0942606,6.0617137,2.4154053,4.565112,-6.352797,4.2045755,4.252069,-4.5074663,0.9452405,3.4236014,-0.4705671,6.486565,4.436084,4.777045,-2.2182643,3.9206402,1.6580971,2.8759315,1.2431237,9.189422,3.907391,2.065296,0.8847036,8.112023,-1.6524436,-0.6894211,2.339711,2.6496372,0.35967004,1.6234285,3.7491581,5.191449,-0.4749356,1.6123196,6.629228,2.9598455,2.222271,3.7452047,1.097106,0.028261304,0.124828845,3.0363107,1.4677634,-0.8615344,1.3521786,4.571034,-2.9269505,9.421501,-0.9407259,-4.9767194,2.6566298,-1.6127653,2.499027,5.209529,-0.5131391,0.1740965,1.4698172,7.672103,2.3831642,-2.0282907,2.5690153,0.836753,-2.0750017,-0.27074417,4.247421,-3.095816,4.068907,2.772552,6.5295587,0.48124477,5.2865543,2.2156024,0.5020491,4.6637173,2.0695715,-3.6554732,1.9990788,12.681044,-0.0862087,-1.4232731,1.6290884,4.8278522,6.38297,-2.0764408,3.1593637,0.15909213,4.345815,-2.305102,-4.3685746,-5.211624,-4.5001063,3.5878918,1.5004722,-0.017070748,-0.09839654,5.9852753,3.0335064,-2.1829944,2.7301185,-2.6424518,0.3296057,-1.1836317,-5.280559,-3.9207697,2.7913413,-0.81766295,-0.7002758,-0.35136175,-6.070776,-3.8866303,-1.4753875,-0.92392397,1.9617693,-1.4711666,1.4634345,-1.5231655,-1.8986831,-1.2681416,0.40607154,-2.2964144,-1.4698415,-3.762402,-4.988349,-2.5430949,-3.2779171,-3.341427,-1.1595258,-3.487728,-1.3805168,1.7842145,-0.5522472,-3.6184192,-5.4716916,-0.37323838,-0.9030166,2.4615588,-3.455044,-3.496519,-3.5533667,-3.2918215,-1.8866314,2.5926785,2.8861883,4.9831915,1.9913348,-0.5264568,0.7347639,-1.6654749,-3.7277918,-3.5666027,-3.7073379,-2.199653,-2.0061626,-1.2403297,-3.1358733,-3.768826,0.26701823,0.27992028,2.146983,-2.5102441,-4.4290066,-7.2094016,-0.40811908,2.2243655,-2.5820203,-4.6283493,-4.722851,-7.6180463,-3.1958299,-3.0329132,-1.0320377,-1.5877211,-5.0889573,-0.849462,3.1499362