-3.2827692,-3.7277048,-3.3913152,-3.2547967,-2.3169665,-1.7833622,-0.8241495,-2.874005,-3.090377,-2.735126,-4.744385,0.24958026,-2.3436086,-2.0528393,-2.188468,-2.3070822,-0.3665437,0.07552731,-1.9604385,-0.5960876,0.2496208,-2.3916423,-1.2557232,-4.66055,-3.4146519,-3.3897548,-3.664239,-2.7833302,-3.9315767,-2.045586,-2.9904482,-6.786647,-5.6540074,-5.0922275,-5.993748,-6.4434414,-6.19938,-3.2869864,-5.369217,-1.1248724,-4.768325,-3.810103,-3.6080136,-4.332542,-2.758563,-4.828757,-3.9701114,-2.769575,-2.4962256,-8.242024,-6.159783,-6.1647186,-2.480752,-2.542798,-1.6592202,-4.508238,-6.5341706,-2.5207615,-6.0200353,-5.2872267,-2.724073,-3.9257202,-4.905286,-2.5397594,-6.6421704,-3.0335999,-3.8801947,-2.6087282,-3.1365244,-1.0894947,-5.7093554,-4.921011,-3.2419746,-1.2974987,1.2356545,-3.4727373,0.9358006,-2.1892366,-3.2790327,2.8489802,0.95556164,-1.1023118,-4.350472,-3.390641,-1.5578951,-3.3167977,-1.8892486,-1.2124906,-1.3379171,-4.346836,-2.4678507,-4.898942,1.2962139,0.22410625,-6.5331755,1.9062642,1.9630314,-1.0586673,-4.808283,-2.7769012,-1.7864909,-5.0838637,-1.9915342,-3.2946763,-1.1846988,-3.3167388,-7.1465364,-6.0036025,-6.7902555,-4.9827485,-5.4048924,-3.0279493,-1.9825861,-2.1449287,-0.7141661,-0.9826981,-2.6676123,-7.0158105,-2.5069728,-3.7036686,-5.8192844,-3.15356,-3.0645738,-0.61090684,-1.908253,-3.0160415,-5.968029,-0.5710298,-3.865857,-1.4324166,-2.8743236,-5.377781,-5.820676,-4.5470037,-3.933861,-3.5203562,-3.4560127,-4.6742826,-4.999934,-5.561301,-3.264751,-0.854495,-2.059547,-1.593888,-2.6641037,-4.610572,-3.1745172,-2.1855683,-4.4925942,-2.0318794,-3.044726,-1.254564,0.32884023,1.5865026,0.13193335,0.055882454,0.29445583,-1.7426889,2.7299566,2.8646154,0.034676313,-1.297366,-3.305907,-2.0256667,-1.7447932,-1.7036649,0.8950647,0.19864148,0.08168936,0.42364442,0.8289067,-2.0766342,0.36488396,-0.26975664,0.22362265,0.4944328,0.7413662,0.2533437,-0.47282207,-1.2288153,-1.3506202,-3.0491912,-2.1124868,0.09754637,1.2043755,0.75754607,-0.15274507,-2.6753547,-1.5957922,2.0133784,-0.6300643,2.0084128,-0.55159545,-0.9839657,-0.1921246,-0.85718787,-0.5144067,1.2841289,0.26826623,-0.8950887,-0.9415259,-0.26155025,-1.2323041,-1.0073079,-0.8944392,1.0154483,-1.2692586,-0.19414556,-1.3950198,0.15257153,-2.1921763,-0.4990555,-1.7497735,0.07766096,-1.3020885,0.43146214,-0.74331546,0.22960663,-1.8271552,-4.0859494,-2.6277528,0.97511363,-2.6820984,-1.3253105,-0.36603642,-0.71261334,0.31346077,-1.9762604,-2.4321058,-0.64500856,-0.85695636,0.76364255,1.5128717,-0.9457067,-1.1464736,-1.5151112,-1.5130559,-0.73358107,-1.1785622,-0.59585524,0.32873112,1.5703286,0.43022668,-1.9078556,-2.0656276,-3.6177197,-2.64509,-2.244083,-2.4942195,0.4284997,-1.213521,-1.2161196,-3.4375613,1.2908794,0.6992147,-0.124078274,-2.650445,-2.3948982,-0.036084235,0.4669163,0.3605398,-2.4602149,1.2559423,0.97273993,0.1553933,0.17512134,-0.6409502,-2.3021247,-0.737654,1.1091903,-2.0834317,-0.39617547,-1.4740328,-1.035319,-2.124296,-0.8297504,-1.028909,-5.670614,1.6301326,-0.16669118,1.4690132,-0.039657563,0.6037597,-1.1120613,2.7915006,0.37455845,-1.4779058,-3.0912547,-3.8162413,-5.398171,-4.9778857,-4.9539185,-1.5340183,-1.486438,-3.1221836,-4.918909,-3.5887332,-2.4781384,-5.770886,-3.0327957,-3.980123,-0.50540614,-1.5553112,0.5338768,0.63328665,-4.7906866,-2.4111881,-1.4953988,-1.4400743,-2.8061776,-4.705162,0.05480987,-0.26984885,-0.3061542,-0.08831096,-0.40199304,-2.2678726,-3.9602082,1.0174788,-0.68752193,-0.6726804,1.50687,-4.5557714,-5.4908032,-1.825551,-4.0078764,-5.4700794,-2.0345938,-7.1142187,-3.1995063,-4.4279633,-3.576396,-2.041055,0.7797824,0.34955072,-4.86753,-1.1997435,-0.10964072,-2.9808817,-1.452443,1.2983592,-5.3724656,-0.7255429,-3.9224207,-5.487351,-6.5011463,-0.7072997,-4.5768013,-2.8836432,-2.433693,-3.9096737,-1.8168848,-0.39982456,-0.4345206,0.08577162,-1.1980778,-1.0097619,1.0115548,-0.8478348,1.8819265,1.5795559,-4.196282,0.27367425,-0.96804756,-2.3044584,-1.9466534,-2.1397638,-7.7382255,-4.3030667,-4.925482,-3.0363688,-2.5011592,-2.7113988,-3.7207808,-2.67213,-2.1085632,-1.4772335,-5.879007,-0.30102646,-2.50039,-4.472831,-2.0633068,-5.18276,-1.416279,-3.041152,-2.48592,-2.7357779,-3.130734,-2.119227,-3.737904,-0.10830361,-1.9277238,-0.5424646,-2.6483138,-5.1181984,-3.8293278,2.5973074,-4.748765,-5.654965,0.8506168,-1.4482359,1.4321383,-1.4508506,3.279324,-2.402833,2.4466937,4.1458364,-1.1639074,-1.4573591,0.1959722,5.725812,0.41470528,-2.4501078,-0.039747894,12.240946,0.5041815,-1.9715889,4.9960914,-5.437261,9.864273,3.0534275,3.5868828,3.8559656,6.3138065,0.95586115,-2.261929,4.1528006,3.5219688,2.692027,3.6814513,-1.218649,-4.3274717,1.2102606,9.027105,-0.9316733,0.9418583,1.067091,0.46193686,2.3733826,3.475846,-1.026628,1.9050866,-0.9186844,0.90244377,-3.5366488,1.1082995,-1.254746,9.330298,4.4044113,-1.056381,4.1966314,6.2414503,5.365882,-4.4979286,-0.06028068,-2.9732325,0.46977448,5.29205,3.5725057,-1.9758236,-1.3982413,1.1869588,-0.101561606,4.470189,-0.7737437,6.1740303,2.6997628,-1.1325877,-2.4799852,1.0153455,0.5920935,0.44016963,6.628089,1.7056366,9.674025,-3.3283625,0.65188384,-5.0845785,6.1023297,2.7976413,1.3459314,-1.3379399,3.5311418,4.5094724,-0.8802954,0.17564547,2.8862343,4.043165,2.8217711,3.5857122,2.1771722,0.281182,5.330557,2.6443086,1.5540909,6.1520567,-0.6790719,-5.1808105,0.7609142,0.85272944,11.072653,-1.9137822,-2.160386,0.16306278,4.306294,-0.49011838,1.6305739,1.3964567,6.0834265,3.029113,-1.0223501,1.4309658,2.583185,9.474133,3.611669,-0.69915986,1.7634985,4.2498636,2.248034,-2.9725268,2.111495,1.7039772,0.7657767,5.1865687,2.9722338,-1.2772851,2.30716,5.361608,3.0471604,-0.31989914,-0.84887135,5.1353197,4.7411103,7.8056097,-0.9632675,3.0976453,-0.18766001,1.3245807,2.368482,-2.0641756,-0.22094989,-0.90358055,2.2342312,5.4767017,6.4558163,2.210944,0.5868937,0.7947545,0.25818372,2.7411847,1.4809501,5.8744297,6.7453055,0.106622875,5.6832542,-0.5716915,-1.07306,4.397647,1.1932509,8.911331,4.773378,-4.880335,-0.31024697,-3.4507146,9.505714,1.9500577,3.4403749,1.8059593,7.131388,-3.7084377,-0.43479702,1.1313193,0.61696756,-1.7858074,-2.7638521,-0.23668236,-2.132686,-1.5060204,5.411102,-1.9643462,2.6300192,-1.95834,-2.1601439,-0.73589003,7.738223,6.499111,3.9972014,1.242113,7.4918513,0.5913388,5.028077,4.17982,0.31212157,5.362967,7.8996334,1.0125197,4.529627,9.504521,3.9772387,5.1372066,2.9154174,9.026327,-1.937957,3.3175747,1.058754,3.7795079,2.2920635,3.1427908,-4.47485,-0.08542895,-4.70655,1.472018,0.5946348,2.2842045,1.8211558,-3.984365,0.66293395,0.8660822,2.2809887,2.2314136,-0.5000504,3.6556644,2.4881356,-1.4149741,10.35626,-0.39888436,1.885129,7.670785,1.5693808,-2.837449,8.412717,1.0273799,4.5511203,6.0591207,8.3844795,4.3561993,2.827267,2.6979718,3.6350465,-0.5600417,-0.2847798,-2.97605,2.1893559,5.0162077,-3.2972684,3.173849,-4.8864846,-1.2368635,2.8011267,1.9041538,-2.514922,5.956893,1.0300403,0.6859828,2.8505197,-2.3242767,-1.8084099,-2.907291,6.4227247,-2.4992998,-0.16743541,3.914264,-1.07987,6.436247,0.8141704,1.5627058,-0.9338232,1.7591436,6.2238545,-2.5924654,-0.08152142,-2.7770905,2.6459103,1.3154649,2.2935066,9.282282,-0.5769658,4.9172254,9.439804,0.6749378,1.0209757,2.489803,4.4917035,-1.46591,9.931094,1.9196777,0.7282963,3.961681,0.3246998,0.87571913,-2.91924,-0.6342678,1.1142641,3.7879376,1.7271388,4.663035,5.5988283,5.995493,-4.1381083,-2.830694,5.1085854,5.9275303,-2.5365374,3.6571608,2.543991,-3.2958488,0.89638925,1.9102317,-1.5045232,2.8755567,2.9238846,6.4590254,4.47287,1.0175917,1.0384243,0.103824615,0.14010513,-0.98970807,0.69891715,0.018367112,0.021461606,3.5901563,-2.0253804,2.7131522,-0.17582384,-1.415471,-1.3567584,6.6372066,-1.1964011,1.3102119,6.3096266,5.7144146,5.793947,2.2252243,5.0008893,-3.9058642,-3.2267487,4.9077625,2.1196878,-1.6126814,3.5951405,7.7047887,1.3051333,5.4478335,3.0982304,8.063531,3.5089302,1.9932777,3.6441388,2.0528226,4.608571,1.6887813,0.45145792,1.4920793,2.5814943,6.328528,-0.70871073,0.24815574,-2.1141992,8.368936,1.8720456,2.6668997,2.6042979,1.4937353,10.98662,10.8790245,1.2519768,6.748181,5.974156,-4.8776903,4.6910486,-3.7056658,3.422946,4.143548,0.30792072,-1.396725,-2.482725,2.565329,10.50567,1.327461,-2.4542835,-1.2226923,-0.7721722,3.568429,7.022771,8.3982,1.0230427,4.549993,-1.5181959,-2.5694695,2.7308981,1.1795121,2.9281394,7.7782803,-1.1157062,3.5379472,5.948991,-3.425687,0.6357487,7.0644903,1.8217204,-2.176656,2.3877301,0.9918988,6.4360647,4.9949064,-4.6898246,-0.93516207,2.503588,0.044478506,-0.10047954,6.130642,5.705237,1.5997329,7.3195934,1.6593977,0.101313114,4.048495,1.2562215,7.301075,-0.21421777,2.4343176,1.079818,2.3776193,1.8678986,-2.33708,-1.0367354,2.976639,2.563582,6.047117,-4.4135733,10.639619,8.55076,-1.232186,1.8637879,0.29000282,-1.6668065,4.832081,2.1348188,4.509214,1.2121139,4.57021,-0.8346878,0.6612606,0.37899283,9.132519,8.775777,3.3841984,0.94382924,2.9333434,1.1559658,-2.9448838,3.3217947,2.5067377,0.6884684,3.7814207,0.6318865,5.8696337,-0.43459088,2.1989582,3.1313345,4.463757,1.0063407,3.2348704,-2.5327785,1.6951301,-0.8420392,0.80059206,3.0744627,1.4962052,-0.6101217,0.85193,3.6145391,6.7361574,-3.2056684,-4.06954,3.7304394,0.9408988,4.236555,4.5499215,1.9957992,-0.00041788816,4.4285827,5.5570397,-1.7501179,-1.4617939,1.748365,-2.3009386,-2.781906,-0.9917362,2.7678423,-5.1902843,7.4310474,5.649504,2.6236649,3.8973603,3.0714195,3.3466747,-0.7890279,3.064137,1.3840287,-1.2940851,0.5212833,9.493129,-0.91902006,1.7029088,2.149544,4.260392,6.1498766,0.9169425,6.6792545,-1.6772249,1.613455,2.5342255,-0.5080371,-1.9490552,-2.7010617,1.4582577,-0.92275226,1.408861,3.1922073,4.01783,2.4363787,-1.2569312,0.5330596,-3.828295,1.3947968,1.4056726,-1.2363257,-4.2156587,0.5095643,0.93069506,0.794907,-0.8475019,-5.208773,-1.0953059,-0.28695333,1.0831974,-0.27407253,-2.786021,-1.0659366,0.7554236,-2.0722444,-1.9023907,-0.57441413,-1.3270086,-3.1038752,-2.1950006,-3.5665317,-0.69257563,-0.6224053,-1.6225827,-0.19584468,-2.0678835,-1.4746842,-0.0988611,-1.8807459,-4.5893483,-3.988638,-0.43560666,-0.5754901,-0.1056602,-1.9964373,-0.49580073,-2.944168,-1.5060346,-2.074656,2.3262663,1.5126374,0.24006975,4.7066865,2.391547,-1.4331152,0.29699856,-3.8852463,-0.5765177,2.1703875,-1.7567854,1.1195307,0.2440269,-1.1074564,-3.4026618,-2.0792239,0.23830312,-1.3807483,0.02810201,-2.4881907,-6.8511887,0.4981665,-3.7399714,-2.2721014,-5.4797397,-3.9782388,-4.52689,-3.9169705,-2.4723291,-0.73765254,-0.18311808,-3.7071476,0.14336294,1.9289802